{
    "weights": [
        [
            -0.8472350835800171,
            0.13491205871105194,
            -0.774430513381958,
            -0.3551039397716522,
            0.7683524489402771,
            -0.388782799243927,
            0.13697630167007446
        ],
        [
            0.27106794714927673,
            0.4297312796115875,
            0.004832673817873001,
            -0.31040626764297485,
            0.7197169661521912,
            -0.3879731297492981,
            -0.28477638959884644
        ],
        [
            0.001773720607161522,
            -0.4621084928512573,
            0.4573742151260376,
            -0.08105676621198654,
            0.5065871477127075,
            0.5453017354011536,
            0.5897685289382935
        ],
        [
            0.0728127509355545,
            0.5857202410697937,
            0.4784078001976013,
            -0.10150066763162613,
            0.4315512776374817,
            0.09489761292934418,
            -0.8286521434783936
        ],
        [
            -0.17155355215072632,
            -0.6911832094192505,
            -0.2806195318698883,
            -0.45195308327674866,
            0.3129032552242279,
            -0.2262754738330841,
            0.44813331961631775
        ],
        [
            -0.26785197854042053,
            -0.13110926747322083,
            -0.3208406865596771,
            -0.1712351143360138,
            -0.3275187313556671,
            0.3643726110458374,
            -0.6693087816238403
        ],
        [
            0.4005109369754791,
            0.15052632987499237,
            0.030829697847366333,
            -0.5793989896774292,
            -0.30986708402633667,
            -0.6394121050834656,
            0.013747472316026688
        ],
        [
            -0.06302940845489502,
            0.3045514225959778,
            -0.11901460587978363,
            0.06755596399307251,
            0.16427075862884521,
            0.3879263699054718,
            0.37494325637817383
        ],
        [
            0.23563355207443237,
            -0.7960124611854553,
            0.4154343903064728,
            -0.3270052373409271,
            -0.21807871758937836,
            0.4062938094139099,
            0.7921192049980164
        ],
        [
            0.23706743121147156,
            0.6165619492530823,
            -0.14599396288394928,
            -0.46300506591796875,
            -0.11653516441583633,
            0.5264673829078674,
            0.302778422832489
        ],
        [
            -0.26449620723724365,
            0.556244969367981,
            0.2772165536880493,
            -0.4339452087879181,
            -0.2872019410133362,
            -0.13301467895507812,
            -0.43985241651535034
        ],
        [
            -0.5906564593315125,
            -0.7688309550285339,
            -0.10761280357837677,
            0.5051079392433167,
            -0.1756344437599182,
            -0.6005771160125732,
            0.03854568302631378
        ],
        [
            -0.7725958228111267,
            -0.6364812254905701,
            -0.2941025495529175,
            0.4369161128997803,
            -0.5147884488105774,
            0.11384668946266174,
            -0.30020391941070557
        ],
        [
            -0.05745316296815872,
            0.36927592754364014,
            -0.41159650683403015,
            -0.144046813249588,
            -0.5624021887779236,
            0.3549027442932129,
            -0.1884942650794983
        ],
        [
            -0.12714549899101257,
            -0.26404711604118347,
            0.3100353479385376,
            0.31202489137649536,
            0.35008886456489563,
            -0.41040465235710144,
            0.36368900537490845
        ],
        [
            0.2640264928340912,
            -0.34717118740081787,
            -0.38614407181739807,
            0.42535534501075745,
            0.17771092057228088,
            -0.10189546644687653,
            0.34242862462997437
        ],
        [
            0.31146037578582764,
            0.5586071610450745,
            -0.6913613677024841,
            -0.26858487725257874,
            -0.16139885783195496,
            -0.24865682423114777,
            0.20938840508460999
        ],
        [
            -0.45611509680747986,
            -0.03767547011375427,
            -0.2828972339630127,
            -0.3365270793437958,
            0.22285056114196777,
            0.3106234073638916,
            0.11609093099832535
        ],
        [
            0.029761167243123055,
            -0.3073766827583313,
            -0.11517536640167236,
            -0.26717814803123474,
            -0.1597743034362793,
            -0.05908747762441635,
            0.1095871850848198
        ],
        [
            -0.6300768256187439,
            0.12897054851055145,
            0.128313809633255,
            -0.052704256027936935,
            0.07479412853717804,
            -0.48170799016952515,
            0.3725987672805786
        ],
        [
            -0.4184894859790802,
            0.1512785702943802,
            0.07083792984485626,
            0.24895378947257996,
            0.04487752541899681,
            -0.7774657011032104,
            -0.7172498106956482
        ],
        [
            0.43232405185699463,
            -0.318625271320343,
            -0.15856273472309113,
            -0.5376160144805908,
            0.39130306243896484,
            0.31081897020339966,
            0.0796251893043518
        ],
        [
            -0.14188575744628906,
            -0.1567881554365158,
            0.3084157705307007,
            0.14591817557811737,
            0.3545594811439514,
            0.10031906515359879,
            -0.04998232424259186
        ],
        [
            -0.16730451583862305,
            0.3710148334503174,
            0.30746644735336304,
            0.3296802043914795,
            0.225788876414299,
            -0.12944771349430084,
            0.3161424398422241
        ],
        [
            -0.02331821620464325,
            -0.4476607143878937,
            0.07897377759218216,
            -0.5684911608695984,
            0.23362621665000916,
            0.8258258700370789,
            -0.2261028289794922
        ],
        [
            -0.5481605529785156,
            0.39640945196151733,
            0.35123956203460693,
            -0.3452511131763458,
            0.1829911172389984,
            0.03489018231630325,
            -0.05801326781511307
        ],
        [
            0.539739191532135,
            0.24905464053153992,
            0.40690359473228455,
            0.2601335048675537,
            -0.07864505052566528,
            0.5332433581352234,
            0.5275226831436157
        ],
        [
            -0.23614990711212158,
            0.6490994095802307,
            0.02724243514239788,
            0.2303001880645752,
            0.06666003912687302,
            -0.5334402918815613,
            0.43602949380874634
        ],
        [
            0.11498995870351791,
            -0.06794627755880356,
            -0.14467763900756836,
            0.2637803256511688,
            0.2952229082584381,
            -0.13431261479854584,
            -0.028199750930070877
        ],
        [
            -0.3992023468017578,
            0.18601098656654358,
            -0.5729448795318604,
            0.05331730097532272,
            -0.15432658791542053,
            0.0900435522198677,
            -0.19849881529808044
        ],
        [
            -0.2752915918827057,
            0.2356465756893158,
            0.3240602910518646,
            -0.10276754945516586,
            0.38123148679733276,
            -0.024827083572745323,
            0.32957005500793457
        ],
        [
            -0.532874345779419,
            0.22047163546085358,
            0.19788219034671783,
            -0.10853393375873566,
            0.15214881300926208,
            0.02440391108393669,
            0.5834183692932129
        ]
    ],
    "bias": null
}