{
    "weights": [
        [
            -0.3763400912284851,
            0.12914301455020905,
            -0.3669832646846771,
            -0.4256148338317871,
            0.5111607909202576,
            -0.8408645391464233,
            0.48587194085121155
        ],
        [
            0.4448257088661194,
            0.24686792492866516,
            -0.0220814011991024,
            -0.18483966588974,
            0.4208992123603821,
            -0.28995880484580994,
            -0.2425798773765564
        ],
        [
            -0.010557932779192924,
            -0.3720393180847168,
            0.47588932514190674,
            -0.07254417985677719,
            0.3045748174190521,
            0.5013461112976074,
            0.4849669933319092
        ],
        [
            0.10359811782836914,
            0.7465250492095947,
            0.35603976249694824,
            -0.25494763255119324,
            0.4768174886703491,
            0.31388553977012634,
            -0.5785080790519714
        ],
        [
            0.13821780681610107,
            -0.12043929845094681,
            -0.33315855264663696,
            -0.4869975745677948,
            -0.13315783441066742,
            -0.6739784479141235,
            0.4817829430103302
        ],
        [
            -0.480393648147583,
            0.08773639798164368,
            -0.4888973534107208,
            -0.14384961128234863,
            -0.06585164368152618,
            0.34229880571365356,
            -0.6613147258758545
        ],
        [
            0.5446106791496277,
            0.3221434950828552,
            -0.17898643016815186,
            -0.21189887821674347,
            -0.30162620544433594,
            -0.32970476150512695,
            0.21445874869823456
        ],
        [
            -0.10854174196720123,
            0.4112865626811981,
            -0.09487058222293854,
            0.290681391954422,
            0.03788773715496063,
            0.39110642671585083,
            0.4660458266735077
        ],
        [
            0.1399931013584137,
            -0.5559255480766296,
            0.15127791464328766,
            -0.3797079920768738,
            -0.0014874078333377838,
            0.48565569519996643,
            0.8529632687568665
        ],
        [
            0.5976235866546631,
            0.7160446643829346,
            -0.23612810671329498,
            -0.33716291189193726,
            -0.033275142312049866,
            0.3336505889892578,
            0.3280128538608551
        ],
        [
            -0.23911796510219574,
            0.45128345489501953,
            0.4783501923084259,
            -0.2600231468677521,
            -0.01019519567489624,
            -0.10148598998785019,
            -0.1527641862630844
        ],
        [
            -0.5652623772621155,
            -0.592097282409668,
            -0.018598420545458794,
            0.1835286021232605,
            -0.40581753849983215,
            -0.7577531337738037,
            0.03770840913057327
        ],
        [
            -0.5600221157073975,
            -0.6676349639892578,
            -0.10526986420154572,
            0.06340804696083069,
            -0.28928235173225403,
            0.12787824869155884,
            -0.3257824778556824
        ],
        [
            -0.13299880921840668,
            0.1637505143880844,
            -0.13833853602409363,
            -0.16852566599845886,
            -0.43536022305488586,
            0.5374617576599121,
            -0.277591735124588
        ],
        [
            -0.19141417741775513,
            -0.34326091408729553,
            0.3419781029224396,
            0.21779808402061462,
            0.18018366396427155,
            -0.35379186272621155,
            0.24569445848464966
        ],
        [
            0.5107008218765259,
            0.12843938171863556,
            -0.43358877301216125,
            0.343805730342865,
            0.0447031632065773,
            -0.29780998826026917,
            0.40483006834983826
        ],
        [
            0.07382352650165558,
            0.06628958880901337,
            -0.4460301995277405,
            -0.41922932863235474,
            -0.014309301972389221,
            -0.3543641269207001,
            0.04349181056022644
        ],
        [
            -0.4622664451599121,
            0.1955234706401825,
            -0.2663361132144928,
            -0.35695499181747437,
            0.3589918613433838,
            0.3855985403060913,
            0.0643867775797844
        ],
        [
            0.034446753561496735,
            -0.35693177580833435,
            -0.0396452397108078,
            -0.021838467568159103,
            -0.11326956748962402,
            0.11818727105855942,
            -0.08456794917583466
        ],
        [
            -0.576270580291748,
            -0.061178889125585556,
            -0.015300348401069641,
            -0.10321614146232605,
            0.09051743149757385,
            -0.36439627408981323,
            0.16707807779312134
        ],
        [
            -0.14804114401340485,
            0.11767523735761642,
            0.09974616765975952,
            0.13484103977680206,
            0.0927932858467102,
            -0.34872370958328247,
            -0.30734193325042725
        ],
        [
            0.5219965577125549,
            0.05515650287270546,
            -0.2732543349266052,
            -0.6936280727386475,
            0.6651690602302551,
            -0.1454477310180664,
            0.1816072314977646
        ],
        [
            -0.22045409679412842,
            -0.11055561155080795,
            0.280426025390625,
            -0.3287760019302368,
            0.1563255786895752,
            -0.4375797510147095,
            0.0011413991451263428
        ],
        [
            -0.07358710467815399,
            0.4327888786792755,
            0.3488534390926361,
            -0.22858694195747375,
            -0.190888911485672,
            -0.23970380425453186,
            0.4063955247402191
        ],
        [
            -0.42111772298812866,
            -0.7450339198112488,
            0.20439761877059937,
            -0.0963766947388649,
            0.013596827164292336,
            0.5870365500450134,
            -0.3860366940498352
        ],
        [
            -0.49164003133773804,
            0.3644893765449524,
            0.18877477943897247,
            -0.2818871736526489,
            0.15632779896259308,
            0.1498878300189972,
            -0.19516631960868835
        ],
        [
            0.5249164700508118,
            0.2264939397573471,
            0.3761735260486603,
            0.18383285403251648,
            0.1451088935136795,
            0.3649851381778717,
            0.30566123127937317
        ],
        [
            -0.07092331349849701,
            0.4580771327018738,
            -0.03895431011915207,
            -0.0067434050142765045,
            -0.14694584906101227,
            -0.7378961443901062,
            0.38603711128234863
        ],
        [
            0.4426186680793762,
            -0.1485447883605957,
            -0.30042511224746704,
            0.10174430906772614,
            -0.01742492988705635,
            -0.5724261999130249,
            0.10316792130470276
        ],
        [
            -0.41846325993537903,
            0.019538290798664093,
            -0.505728542804718,
            -0.20537984371185303,
            0.1137351244688034,
            0.24146442115306854,
            -0.11345981806516647
        ],
        [
            -0.2484685778617859,
            0.28170931339263916,
            0.09171628206968307,
            -0.42037925124168396,
            0.31986239552497864,
            -0.3191820979118347,
            0.344897598028183
        ],
        [
            -0.47108638286590576,
            0.17606215178966522,
            0.18343573808670044,
            0.010338257998228073,
            -0.18109816312789917,
            -0.23547694087028503,
            0.5937743186950684
        ]
    ],
    "bias": null
}