{
    "weights": [
        [
            -0.31475862860679626,
            -0.42294424772262573,
            -0.12253377586603165,
            0.48235100507736206,
            -0.496553510427475,
            -0.5586370825767517,
            0.41095170378685
        ],
        [
            -0.6508792042732239,
            -0.4441012740135193,
            0.030751697719097137,
            -0.16002430021762848,
            -0.09881331026554108,
            0.38141903281211853,
            -0.37110885977745056
        ],
        [
            -0.4541175663471222,
            -0.2955491840839386,
            0.06450644135475159,
            0.2197459638118744,
            0.6519030332565308,
            -0.5065470933914185,
            0.463583767414093
        ],
        [
            -0.6262303590774536,
            -0.10783009231090546,
            0.08372568339109421,
            -0.038208797574043274,
            0.23381753265857697,
            -0.014570202678442001,
            -0.25685933232307434
        ],
        [
            -0.2925441265106201,
            -0.5046742558479309,
            0.06216621771454811,
            0.2788044214248657,
            -0.3344240188598633,
            0.062160931527614594,
            0.4424428343772888
        ],
        [
            0.0408579558134079,
            -0.10853663086891174,
            -0.011991171166300774,
            0.33836492896080017,
            0.3727678060531616,
            -0.4128321409225464,
            -0.3553425371646881
        ],
        [
            -0.5077434778213501,
            0.47358810901641846,
            0.6748806238174438,
            0.7398632168769836,
            -0.3025435209274292,
            -0.09555327892303467,
            -0.11604917794466019
        ],
        [
            0.005475342273712158,
            0.17196358740329742,
            -0.4946742057800293,
            0.3350466191768646,
            -0.43182656168937683,
            -0.5333666801452637,
            0.6344805359840393
        ],
        [
            -0.4991198778152466,
            -0.3547614812850952,
            -0.026843644678592682,
            0.789681077003479,
            0.006147206760942936,
            0.12899108231067657,
            -0.316485196352005
        ],
        [
            -0.43573182821273804,
            0.34119099378585815,
            -0.27923858165740967,
            -0.512154221534729,
            0.17055587470531464,
            -0.36365509033203125,
            -0.5040785670280457
        ],
        [
            0.4415234327316284,
            -0.1584646999835968,
            0.7286521196365356,
            -0.3123736083507538,
            -0.14328716695308685,
            0.35519617795944214,
            -0.334621399641037
        ],
        [
            -0.03963537886738777,
            -0.46165862679481506,
            -0.22785097360610962,
            -0.3335338532924652,
            0.476360946893692,
            -0.5576221346855164,
            0.43280261754989624
        ],
        [
            -0.5537053942680359,
            0.018205702304840088,
            -0.03575786575675011,
            -0.07680907100439072,
            0.014142584055662155,
            -0.13705313205718994,
            0.4315592050552368
        ],
        [
            -0.799003005027771,
            0.4021032154560089,
            0.5846071839332581,
            -0.45866554975509644,
            -0.5129134058952332,
            0.1773492991924286,
            0.05855436250567436
        ],
        [
            0.3056868612766266,
            -0.12149331718683243,
            -0.11443666368722916,
            0.0332263819873333,
            0.2655774652957916,
            0.22985005378723145,
            -0.695176899433136
        ],
        [
            0.7221179604530334,
            -0.7742375731468201,
            0.04464167356491089,
            0.18444930016994476,
            -0.13392846286296844,
            0.0194951631128788,
            -0.3971776068210602
        ]
    ],
    "bias": null
}